digraph Tree {
node [shape=box, style="filled, rounded", color="black", fontname="helvetica"] ;
edge [fontname="helvetica"] ;
0 [label="middle_middle_x <= 0.5\ngini = 0.47\nsamples = 494\nvalue = [291, 475]\nclass = a", fillcolor="#b2d9f5"] ;
1 [label="upper_left_o <= 0.5\ngini = 0.5\nsamples = 257\nvalue = [190, 202]\nclass = a", fillcolor="#f3f9fd"] ;
0 -> 1 [labeldistance=2.5, labelangle=45, headlabel="True"] ;
2 [label="upper_middle_o <= 0.5\ngini = 0.49\nsamples = 179\nvalue = [119, 158]\nclass = a", fillcolor="#cee7f9"] ;
1 -> 2 ;
3 [label="upper_right_o <= 0.5\ngini = 0.48\nsamples = 122\nvalue = [73, 115]\nclass = a", fillcolor="#b7dbf6"] ;
2 -> 3 ;
4 [label="middle_left_o <= 0.5\ngini = 0.4\nsamples = 79\nvalue = [31, 82]\nclass = a", fillcolor="#84c2ef"] ;
3 -> 4 ;
5 [label="upper_left_b <= 0.5\ngini = 0.3\nsamples = 40\nvalue = [11, 50]\nclass = a", fillcolor="#65b3eb"] ;
4 -> 5 ;
6 [label="lower_right_b <= 0.5\ngini = 0.23\nsamples = 34\nvalue = [7, 45]\nclass = a", fillcolor="#58ace9"] ;
5 -> 6 ;
7 [label="lower_middle_o <= 0.5\ngini = 0.33\nsamples = 24\nvalue = [7, 27]\nclass = a", fillcolor="#6cb6ec"] ;
6 -> 7 ;
8 [label="gini = 0.0\nsamples = 11\nvalue = [0, 16]\nclass = a", fillcolor="#399de5"] ;
7 -> 8 ;
9 [label="upper_right_b <= 0.5\ngini = 0.48\nsamples = 13\nvalue = [7, 11]\nclass = a", fillcolor="#b7dbf6"] ;
7 -> 9 ;
10 [label="middle_right_o <= 0.5\ngini = 0.43\nsamples = 11\nvalue = [5, 11]\nclass = a", fillcolor="#93caf1"] ;
9 -> 10 ;
11 [label="upper_middle_x <= 0.5\ngini = 0.41\nsamples = 5\nvalue = [5, 2]\nclass = t", fillcolor="#efb388"] ;
10 -> 11 ;
12 [label="gini = 0.0\nsamples = 3\nvalue = [5, 0]\nclass = t", fillcolor="#e58139"] ;
11 -> 12 ;
13 [label="gini = 0.0\nsamples = 2\nvalue = [0, 2]\nclass = a", fillcolor="#399de5"] ;
11 -> 13 ;
14 [label="gini = 0.0\nsamples = 6\nvalue = [0, 9]\nclass = a", fillcolor="#399de5"] ;
10 -> 14 ;
15 [label="gini = 0.0\nsamples = 2\nvalue = [2, 0]\nclass = t", fillcolor="#e58139"] ;
9 -> 15 ;
16 [label="gini = 0.0\nsamples = 10\nvalue = [0, 18]\nclass = a", fillcolor="#399de5"] ;
6 -> 16 ;
17 [label="middle_right_x <= 0.5\ngini = 0.49\nsamples = 6\nvalue = [4, 5]\nclass = a", fillcolor="#d7ebfa"] ;
5 -> 17 ;
18 [label="gini = 0.0\nsamples = 1\nvalue = [0, 1]\nclass = a", fillcolor="#399de5"] ;
17 -> 18 ;
19 [label="lower_right_x <= 0.5\ngini = 0.5\nsamples = 5\nvalue = [4, 4]\nclass = t", fillcolor="#ffffff"] ;
17 -> 19 ;
20 [label="gini = 0.0\nsamples = 2\nvalue = [4, 0]\nclass = t", fillcolor="#e58139"] ;
19 -> 20 ;
21 [label="gini = 0.0\nsamples = 3\nvalue = [0, 4]\nclass = a", fillcolor="#399de5"] ;
19 -> 21 ;
22 [label="lower_left_b <= 0.5\ngini = 0.47\nsamples = 39\nvalue = [20, 32]\nclass = a", fillcolor="#b5daf5"] ;
4 -> 22 ;
23 [label="middle_middle_o <= 0.5\ngini = 0.49\nsamples = 27\nvalue = [17, 21]\nclass = a", fillcolor="#d9ecfa"] ;
22 -> 23 ;
24 [label="gini = 0.0\nsamples = 8\nvalue = [0, 11]\nclass = a", fillcolor="#399de5"] ;
23 -> 24 ;
25 [label="upper_left_b <= 0.5\ngini = 0.47\nsamples = 19\nvalue = [17, 10]\nclass = t", fillcolor="#f4cbad"] ;
23 -> 25 ;
26 [label="middle_right_o <= 0.5\ngini = 0.41\nsamples = 12\nvalue = [10, 4]\nclass = t", fillcolor="#efb388"] ;
25 -> 26 ;
27 [label="gini = 0.0\nsamples = 4\nvalue = [0, 4]\nclass = a", fillcolor="#399de5"] ;
26 -> 27 ;
28 [label="gini = 0.0\nsamples = 8\nvalue = [10, 0]\nclass = t", fillcolor="#e58139"] ;
26 -> 28 ;
29 [label="lower_middle_x <= 0.5\ngini = 0.5\nsamples = 7\nvalue = [7, 6]\nclass = t", fillcolor="#fbede3"] ;
25 -> 29 ;
30 [label="middle_right_o <= 0.5\ngini = 0.47\nsamples = 4\nvalue = [3, 5]\nclass = a", fillcolor="#b0d8f5"] ;
29 -> 30 ;
31 [label="gini = 0.0\nsamples = 2\nvalue = [0, 5]\nclass = a", fillcolor="#399de5"] ;
30 -> 31 ;
32 [label="gini = 0.0\nsamples = 2\nvalue = [3, 0]\nclass = t", fillcolor="#e58139"] ;
30 -> 32 ;
33 [label="lower_left_o <= 0.5\ngini = 0.32\nsamples = 3\nvalue = [4, 1]\nclass = t", fillcolor="#eca06a"] ;
29 -> 33 ;
34 [label="gini = 0.0\nsamples = 2\nvalue = [4, 0]\nclass = t", fillcolor="#e58139"] ;
33 -> 34 ;
35 [label="gini = 0.0\nsamples = 1\nvalue = [0, 1]\nclass = a", fillcolor="#399de5"] ;
33 -> 35 ;
36 [label="upper_middle_x <= 0.5\ngini = 0.34\nsamples = 12\nvalue = [3, 11]\nclass = a", fillcolor="#6fb8ec"] ;
22 -> 36 ;
37 [label="gini = 0.0\nsamples = 3\nvalue = [3, 0]\nclass = t", fillcolor="#e58139"] ;
36 -> 37 ;
38 [label="gini = 0.0\nsamples = 9\nvalue = [0, 11]\nclass = a", fillcolor="#399de5"] ;
36 -> 38 ;
39 [label="lower_right_b <= 0.5\ngini = 0.49\nsamples = 43\nvalue = [42, 33]\nclass = t", fillcolor="#f9e4d5"] ;
3 -> 39 ;
40 [label="middle_right_x <= 0.5\ngini = 0.47\nsamples = 31\nvalue = [34, 21]\nclass = t", fillcolor="#f5cfb3"] ;
39 -> 40 ;
41 [label="lower_middle_b <= 0.5\ngini = 0.5\nsamples = 18\nvalue = [16, 17]\nclass = a", fillcolor="#f3f9fd"] ;
40 -> 41 ;
42 [label="lower_middle_x <= 0.5\ngini = 0.49\nsamples = 16\nvalue = [13, 17]\nclass = a", fillcolor="#d0e8f9"] ;
41 -> 42 ;
43 [label="gini = 0.0\nsamples = 1\nvalue = [0, 4]\nclass = a", fillcolor="#399de5"] ;
42 -> 43 ;
44 [label="lower_left_o <= 0.5\ngini = 0.5\nsamples = 15\nvalue = [13, 13]\nclass = t", fillcolor="#ffffff"] ;
42 -> 44 ;
45 [label="middle_right_o <= 0.5\ngini = 0.43\nsamples = 11\nvalue = [6, 13]\nclass = a", fillcolor="#94caf1"] ;
44 -> 45 ;
46 [label="gini = 0.0\nsamples = 4\nvalue = [0, 8]\nclass = a", fillcolor="#399de5"] ;
45 -> 46 ;
47 [label="upper_left_x <= 0.5\ngini = 0.5\nsamples = 7\nvalue = [6, 5]\nclass = t", fillcolor="#fbeade"] ;
45 -> 47 ;
48 [label="middle_left_b <= 0.5\ngini = 0.28\nsamples = 3\nvalue = [1, 5]\nclass = a", fillcolor="#61b1ea"] ;
47 -> 48 ;
49 [label="gini = 0.0\nsamples = 1\nvalue = [0, 3]\nclass = a", fillcolor="#399de5"] ;
48 -> 49 ;
50 [label="upper_middle_b <= 0.5\ngini = 0.44\nsamples = 2\nvalue = [1, 2]\nclass = a", fillcolor="#9ccef2"] ;
48 -> 50 ;
51 [label="gini = 0.0\nsamples = 1\nvalue = [1, 0]\nclass = t", fillcolor="#e58139"] ;
50 -> 51 ;
52 [label="gini = 0.0\nsamples = 1\nvalue = [0, 2]\nclass = a", fillcolor="#399de5"] ;
50 -> 52 ;
53 [label="gini = 0.0\nsamples = 4\nvalue = [5, 0]\nclass = t", fillcolor="#e58139"] ;
47 -> 53 ;
54 [label="gini = 0.0\nsamples = 4\nvalue = [7, 0]\nclass = t", fillcolor="#e58139"] ;
44 -> 54 ;
55 [label="gini = 0.0\nsamples = 2\nvalue = [3, 0]\nclass = t", fillcolor="#e58139"] ;
41 -> 55 ;
56 [label="lower_left_o <= 0.5\ngini = 0.3\nsamples = 13\nvalue = [18, 4]\nclass = t", fillcolor="#eb9d65"] ;
40 -> 56 ;
57 [label="middle_left_x <= 0.5\ngini = 0.5\nsamples = 4\nvalue = [4, 4]\nclass = t", fillcolor="#ffffff"] ;
56 -> 57 ;
58 [label="upper_middle_x <= 0.5\ngini = 0.32\nsamples = 2\nvalue = [4, 1]\nclass = t", fillcolor="#eca06a"] ;
57 -> 58 ;
59 [label="gini = 0.0\nsamples = 1\nvalue = [0, 1]\nclass = a", fillcolor="#399de5"] ;
58 -> 59 ;
60 [label="gini = 0.0\nsamples = 1\nvalue = [4, 0]\nclass = t", fillcolor="#e58139"] ;
58 -> 60 ;
61 [label="gini = 0.0\nsamples = 2\nvalue = [0, 3]\nclass = a", fillcolor="#399de5"] ;
57 -> 61 ;
62 [label="gini = 0.0\nsamples = 9\nvalue = [14, 0]\nclass = t", fillcolor="#e58139"] ;
56 -> 62 ;
63 [label="middle_right_x <= 0.5\ngini = 0.48\nsamples = 12\nvalue = [8, 12]\nclass = a", fillcolor="#bddef6"] ;
39 -> 63 ;
64 [label="lower_middle_b <= 0.5\ngini = 0.34\nsamples = 7\nvalue = [3, 11]\nclass = a", fillcolor="#6fb8ec"] ;
63 -> 64 ;
65 [label="lower_middle_o <= 0.5\ngini = 0.44\nsamples = 5\nvalue = [3, 6]\nclass = a", fillcolor="#9ccef2"] ;
64 -> 65 ;
66 [label="lower_left_x <= 0.5\ngini = 0.48\nsamples = 3\nvalue = [3, 2]\nclass = t", fillcolor="#f6d5bd"] ;
65 -> 66 ;
67 [label="gini = 0.0\nsamples = 2\nvalue = [3, 0]\nclass = t", fillcolor="#e58139"] ;
66 -> 67 ;
68 [label="gini = 0.0\nsamples = 1\nvalue = [0, 2]\nclass = a", fillcolor="#399de5"] ;
66 -> 68 ;
69 [label="gini = 0.0\nsamples = 2\nvalue = [0, 4]\nclass = a", fillcolor="#399de5"] ;
65 -> 69 ;
70 [label="gini = 0.0\nsamples = 2\nvalue = [0, 5]\nclass = a", fillcolor="#399de5"] ;
64 -> 70 ;
71 [label="lower_left_x <= 0.5\ngini = 0.28\nsamples = 5\nvalue = [5, 1]\nclass = t", fillcolor="#ea9a61"] ;
63 -> 71 ;
72 [label="gini = 0.0\nsamples = 4\nvalue = [5, 0]\nclass = t", fillcolor="#e58139"] ;
71 -> 72 ;
73 [label="gini = 0.0\nsamples = 1\nvalue = [0, 1]\nclass = a", fillcolor="#399de5"] ;
71 -> 73 ;
74 [label="lower_middle_o <= 0.5\ngini = 0.5\nsamples = 57\nvalue = [46, 43]\nclass = t", fillcolor="#fdf7f2"] ;
2 -> 74 ;
75 [label="upper_right_x <= 0.5\ngini = 0.43\nsamples = 33\nvalue = [17, 38]\nclass = a", fillcolor="#92c9f1"] ;
74 -> 75 ;
76 [label="lower_left_x <= 0.5\ngini = 0.38\nsamples = 23\nvalue = [10, 30]\nclass = a", fillcolor="#7bbeee"] ;
75 -> 76 ;
77 [label="gini = 0.0\nsamples = 4\nvalue = [10, 0]\nclass = t", fillcolor="#e58139"] ;
76 -> 77 ;
78 [label="gini = 0.0\nsamples = 19\nvalue = [0, 30]\nclass = a", fillcolor="#399de5"] ;
76 -> 78 ;
79 [label="middle_left_o <= 0.5\ngini = 0.5\nsamples = 10\nvalue = [7, 8]\nclass = a", fillcolor="#e6f3fc"] ;
75 -> 79 ;
80 [label="middle_right_x <= 0.5\ngini = 0.32\nsamples = 3\nvalue = [4, 1]\nclass = t", fillcolor="#eca06a"] ;
79 -> 80 ;
81 [label="gini = 0.0\nsamples = 1\nvalue = [2, 0]\nclass = t", fillcolor="#e58139"] ;
80 -> 81 ;
82 [label="upper_left_b <= 0.5\ngini = 0.44\nsamples = 2\nvalue = [2, 1]\nclass = t", fillcolor="#f2c09c"] ;
80 -> 82 ;
83 [label="gini = 0.0\nsamples = 1\nvalue = [2, 0]\nclass = t", fillcolor="#e58139"] ;
82 -> 83 ;
84 [label="gini = 0.0\nsamples = 1\nvalue = [0, 1]\nclass = a", fillcolor="#399de5"] ;
82 -> 84 ;
85 [label="middle_right_o <= 0.5\ngini = 0.42\nsamples = 7\nvalue = [3, 7]\nclass = a", fillcolor="#8ec7f0"] ;
79 -> 85 ;
86 [label="lower_left_x <= 0.5\ngini = 0.22\nsamples = 6\nvalue = [1, 7]\nclass = a", fillcolor="#55abe9"] ;
85 -> 86 ;
87 [label="gini = 0.0\nsamples = 4\nvalue = [0, 6]\nclass = a", fillcolor="#399de5"] ;
86 -> 87 ;
88 [label="lower_right_x <= 0.5\ngini = 0.5\nsamples = 2\nvalue = [1, 1]\nclass = t", fillcolor="#ffffff"] ;
86 -> 88 ;
89 [label="gini = 0.0\nsamples = 1\nvalue = [1, 0]\nclass = t", fillcolor="#e58139"] ;
88 -> 89 ;
90 [label="gini = 0.0\nsamples = 1\nvalue = [0, 1]\nclass = a", fillcolor="#399de5"] ;
88 -> 90 ;
91 [label="gini = 0.0\nsamples = 1\nvalue = [2, 0]\nclass = t", fillcolor="#e58139"] ;
85 -> 91 ;
92 [label="lower_left_o <= 0.5\ngini = 0.25\nsamples = 24\nvalue = [29, 5]\nclass = t", fillcolor="#e9975b"] ;
74 -> 92 ;
93 [label="middle_left_x <= 0.5\ngini = 0.22\nsamples = 22\nvalue = [27, 4]\nclass = t", fillcolor="#e99456"] ;
92 -> 93 ;
94 [label="gini = 0.0\nsamples = 10\nvalue = [15, 0]\nclass = t", fillcolor="#e58139"] ;
93 -> 94 ;
95 [label="middle_middle_b <= 0.5\ngini = 0.38\nsamples = 12\nvalue = [12, 4]\nclass = t", fillcolor="#eeab7b"] ;
93 -> 95 ;
96 [label="gini = 0.0\nsamples = 8\nvalue = [12, 0]\nclass = t", fillcolor="#e58139"] ;
95 -> 96 ;
97 [label="gini = 0.0\nsamples = 4\nvalue = [0, 4]\nclass = a", fillcolor="#399de5"] ;
95 -> 97 ;
98 [label="middle_middle_o <= 0.5\ngini = 0.44\nsamples = 2\nvalue = [2, 1]\nclass = t", fillcolor="#f2c09c"] ;
92 -> 98 ;
99 [label="gini = 0.0\nsamples = 1\nvalue = [0, 1]\nclass = a", fillcolor="#399de5"] ;
98 -> 99 ;
100 [label="gini = 0.0\nsamples = 1\nvalue = [2, 0]\nclass = t", fillcolor="#e58139"] ;
98 -> 100 ;
101 [label="upper_middle_b <= 0.5\ngini = 0.47\nsamples = 78\nvalue = [71, 44]\nclass = t", fillcolor="#f5cfb4"] ;
1 -> 101 ;
102 [label="lower_right_x <= 0.5\ngini = 0.44\nsamples = 54\nvalue = [57, 27]\nclass = t", fillcolor="#f1bd97"] ;
101 -> 102 ;
103 [label="gini = 0.0\nsamples = 24\nvalue = [37, 0]\nclass = t", fillcolor="#e58139"] ;
102 -> 103 ;
104 [label="lower_middle_b <= 0.5\ngini = 0.49\nsamples = 30\nvalue = [20, 27]\nclass = a", fillcolor="#cce6f8"] ;
102 -> 104 ;
105 [label="upper_right_o <= 0.5\ngini = 0.46\nsamples = 25\nvalue = [14, 25]\nclass = a", fillcolor="#a8d4f4"] ;
104 -> 105 ;
106 [label="upper_right_x <= 0.5\ngini = 0.38\nsamples = 17\nvalue = [7, 21]\nclass = a", fillcolor="#7bbeee"] ;
105 -> 106 ;
107 [label="middle_right_x <= 0.5\ngini = 0.48\nsamples = 6\nvalue = [4, 6]\nclass = a", fillcolor="#bddef6"] ;
106 -> 107 ;
108 [label="gini = 0.0\nsamples = 4\nvalue = [0, 6]\nclass = a", fillcolor="#399de5"] ;
107 -> 108 ;
109 [label="gini = 0.0\nsamples = 2\nvalue = [4, 0]\nclass = t", fillcolor="#e58139"] ;
107 -> 109 ;
110 [label="middle_left_b <= 0.5\ngini = 0.28\nsamples = 11\nvalue = [3, 15]\nclass = a", fillcolor="#61b1ea"] ;
106 -> 110 ;
111 [label="upper_middle_o <= 0.5\ngini = 0.49\nsamples = 4\nvalue = [3, 4]\nclass = a", fillcolor="#cee6f8"] ;
110 -> 111 ;
112 [label="gini = 0.0\nsamples = 2\nvalue = [3, 0]\nclass = t", fillcolor="#e58139"] ;
111 -> 112 ;
113 [label="gini = 0.0\nsamples = 2\nvalue = [0, 4]\nclass = a", fillcolor="#399de5"] ;
111 -> 113 ;
114 [label="gini = 0.0\nsamples = 7\nvalue = [0, 11]\nclass = a", fillcolor="#399de5"] ;
110 -> 114 ;
115 [label="middle_middle_b <= 0.5\ngini = 0.46\nsamples = 8\nvalue = [7, 4]\nclass = t", fillcolor="#f4c9aa"] ;
105 -> 115 ;
116 [label="lower_left_o <= 0.5\ngini = 0.49\nsamples = 5\nvalue = [3, 4]\nclass = a", fillcolor="#cee6f8"] ;
115 -> 116 ;
117 [label="middle_right_x <= 0.5\ngini = 0.44\nsamples = 4\nvalue = [2, 4]\nclass = a", fillcolor="#9ccef2"] ;
116 -> 117 ;
118 [label="gini = 0.0\nsamples = 2\nvalue = [0, 3]\nclass = a", fillcolor="#399de5"] ;
117 -> 118 ;
119 [label="upper_middle_x <= 0.5\ngini = 0.44\nsamples = 2\nvalue = [2, 1]\nclass = t", fillcolor="#f2c09c"] ;
117 -> 119 ;
120 [label="gini = 0.0\nsamples = 1\nvalue = [2, 0]\nclass = t", fillcolor="#e58139"] ;
119 -> 120 ;
121 [label="gini = 0.0\nsamples = 1\nvalue = [0, 1]\nclass = a", fillcolor="#399de5"] ;
119 -> 121 ;
122 [label="gini = 0.0\nsamples = 1\nvalue = [1, 0]\nclass = t", fillcolor="#e58139"] ;
116 -> 122 ;
123 [label="gini = 0.0\nsamples = 3\nvalue = [4, 0]\nclass = t", fillcolor="#e58139"] ;
115 -> 123 ;
124 [label="upper_middle_o <= 0.5\ngini = 0.38\nsamples = 5\nvalue = [6, 2]\nclass = t", fillcolor="#eeab7b"] ;
104 -> 124 ;
125 [label="gini = 0.0\nsamples = 1\nvalue = [2, 0]\nclass = t", fillcolor="#e58139"] ;
124 -> 125 ;
126 [label="middle_middle_b <= 0.5\ngini = 0.44\nsamples = 4\nvalue = [4, 2]\nclass = t", fillcolor="#f2c09c"] ;
124 -> 126 ;
127 [label="gini = 0.0\nsamples = 1\nvalue = [1, 0]\nclass = t", fillcolor="#e58139"] ;
126 -> 127 ;
128 [label="upper_right_o <= 0.5\ngini = 0.48\nsamples = 3\nvalue = [3, 2]\nclass = t", fillcolor="#f6d5bd"] ;
126 -> 128 ;
129 [label="gini = 0.0\nsamples = 2\nvalue = [0, 2]\nclass = a", fillcolor="#399de5"] ;
128 -> 129 ;
130 [label="gini = 0.0\nsamples = 1\nvalue = [3, 0]\nclass = t", fillcolor="#e58139"] ;
128 -> 130 ;
131 [label="middle_right_x <= 0.5\ngini = 0.5\nsamples = 24\nvalue = [14, 17]\nclass = a", fillcolor="#dceefa"] ;
101 -> 131 ;
132 [label="middle_left_b <= 0.5\ngini = 0.48\nsamples = 6\nvalue = [4, 6]\nclass = a", fillcolor="#bddef6"] ;
131 -> 132 ;
133 [label="middle_middle_o <= 0.5\ngini = 0.38\nsamples = 5\nvalue = [2, 6]\nclass = a", fillcolor="#7bbeee"] ;
132 -> 133 ;
134 [label="upper_right_o <= 0.5\ngini = 0.44\nsamples = 3\nvalue = [2, 4]\nclass = a", fillcolor="#9ccef2"] ;
133 -> 134 ;
135 [label="middle_right_b <= 0.5\ngini = 0.5\nsamples = 2\nvalue = [2, 2]\nclass = t", fillcolor="#ffffff"] ;
134 -> 135 ;
136 [label="gini = 0.0\nsamples = 1\nvalue = [0, 2]\nclass = a", fillcolor="#399de5"] ;
135 -> 136 ;
137 [label="gini = 0.0\nsamples = 1\nvalue = [2, 0]\nclass = t", fillcolor="#e58139"] ;
135 -> 137 ;
138 [label="gini = 0.0\nsamples = 1\nvalue = [0, 2]\nclass = a", fillcolor="#399de5"] ;
134 -> 138 ;
139 [label="gini = 0.0\nsamples = 2\nvalue = [0, 2]\nclass = a", fillcolor="#399de5"] ;
133 -> 139 ;
140 [label="gini = 0.0\nsamples = 1\nvalue = [2, 0]\nclass = t", fillcolor="#e58139"] ;
132 -> 140 ;
141 [label="middle_middle_b <= 0.5\ngini = 0.5\nsamples = 18\nvalue = [10, 11]\nclass = a", fillcolor="#edf6fd"] ;
131 -> 141 ;
142 [label="lower_left_b <= 0.5\ngini = 0.48\nsamples = 13\nvalue = [9, 6]\nclass = t", fillcolor="#f6d5bd"] ;
141 -> 142 ;
143 [label="middle_left_b <= 0.5\ngini = 0.44\nsamples = 10\nvalue = [8, 4]\nclass = t", fillcolor="#f2c09c"] ;
142 -> 143 ;
144 [label="middle_left_o <= 0.5\ngini = 0.38\nsamples = 6\nvalue = [6, 2]\nclass = t", fillcolor="#eeab7b"] ;
143 -> 144 ;
145 [label="gini = 0.0\nsamples = 3\nvalue = [4, 0]\nclass = t", fillcolor="#e58139"] ;
144 -> 145 ;
146 [label="upper_right_x <= 0.5\ngini = 0.5\nsamples = 3\nvalue = [2, 2]\nclass = t", fillcolor="#ffffff"] ;
144 -> 146 ;
147 [label="gini = 0.0\nsamples = 1\nvalue = [0, 1]\nclass = a", fillcolor="#399de5"] ;
146 -> 147 ;
148 [label="lower_right_x <= 0.5\ngini = 0.44\nsamples = 2\nvalue = [2, 1]\nclass = t", fillcolor="#f2c09c"] ;
146 -> 148 ;
149 [label="gini = 0.0\nsamples = 1\nvalue = [2, 0]\nclass = t", fillcolor="#e58139"] ;
148 -> 149 ;
150 [label="gini = 0.0\nsamples = 1\nvalue = [0, 1]\nclass = a", fillcolor="#399de5"] ;
148 -> 150 ;
151 [label="lower_middle_x <= 0.5\ngini = 0.5\nsamples = 4\nvalue = [2, 2]\nclass = t", fillcolor="#ffffff"] ;
143 -> 151 ;
152 [label="lower_right_o <= 0.5\ngini = 0.5\nsamples = 2\nvalue = [1, 1]\nclass = t", fillcolor="#ffffff"] ;
151 -> 152 ;
153 [label="gini = 0.0\nsamples = 1\nvalue = [0, 1]\nclass = a", fillcolor="#399de5"] ;
152 -> 153 ;
154 [label="gini = 0.0\nsamples = 1\nvalue = [1, 0]\nclass = t", fillcolor="#e58139"] ;
152 -> 154 ;
155 [label="lower_right_x <= 0.5\ngini = 0.5\nsamples = 2\nvalue = [1, 1]\nclass = t", fillcolor="#ffffff"] ;
151 -> 155 ;
156 [label="gini = 0.0\nsamples = 1\nvalue = [1, 0]\nclass = t", fillcolor="#e58139"] ;
155 -> 156 ;
157 [label="gini = 0.0\nsamples = 1\nvalue = [0, 1]\nclass = a", fillcolor="#399de5"] ;
155 -> 157 ;
158 [label="lower_middle_b <= 0.5\ngini = 0.44\nsamples = 3\nvalue = [1, 2]\nclass = a", fillcolor="#9ccef2"] ;
142 -> 158 ;
159 [label="middle_left_b <= 0.5\ngini = 0.5\nsamples = 2\nvalue = [1, 1]\nclass = t", fillcolor="#ffffff"] ;
158 -> 159 ;
160 [label="gini = 0.0\nsamples = 1\nvalue = [0, 1]\nclass = a", fillcolor="#399de5"] ;
159 -> 160 ;
161 [label="gini = 0.0\nsamples = 1\nvalue = [1, 0]\nclass = t", fillcolor="#e58139"] ;
159 -> 161 ;
162 [label="gini = 0.0\nsamples = 1\nvalue = [0, 1]\nclass = a", fillcolor="#399de5"] ;
158 -> 162 ;
163 [label="middle_left_o <= 0.5\ngini = 0.28\nsamples = 5\nvalue = [1, 5]\nclass = a", fillcolor="#61b1ea"] ;
141 -> 163 ;
164 [label="gini = 0.0\nsamples = 1\nvalue = [0, 1]\nclass = a", fillcolor="#399de5"] ;
163 -> 164 ;
165 [label="upper_right_b <= 0.5\ngini = 0.32\nsamples = 4\nvalue = [1, 4]\nclass = a", fillcolor="#6ab6ec"] ;
163 -> 165 ;
166 [label="gini = 0.0\nsamples = 3\nvalue = [0, 4]\nclass = a", fillcolor="#399de5"] ;
165 -> 166 ;
167 [label="gini = 0.0\nsamples = 1\nvalue = [1, 0]\nclass = t", fillcolor="#e58139"] ;
165 -> 167 ;
168 [label="upper_left_b <= 0.5\ngini = 0.39\nsamples = 237\nvalue = [101, 273]\nclass = a", fillcolor="#82c1ef"] ;
0 -> 168 [labeldistance=2.5, labelangle=-45, headlabel="False"] ;
169 [label="upper_left_x <= 0.5\ngini = 0.42\nsamples = 185\nvalue = [83, 197]\nclass = a", fillcolor="#8cc6f0"] ;
168 -> 169 ;
170 [label="lower_right_x <= 0.5\ngini = 0.46\nsamples = 101\nvalue = [54, 98]\nclass = a", fillcolor="#a6d3f3"] ;
169 -> 170 ;
171 [label="lower_middle_b <= 0.5\ngini = 0.38\nsamples = 67\nvalue = [25, 75]\nclass = a", fillcolor="#7bbeee"] ;
170 -> 171 ;
172 [label="lower_middle_x <= 0.5\ngini = 0.33\nsamples = 49\nvalue = [15, 58]\nclass = a", fillcolor="#6cb6ec"] ;
171 -> 172 ;
173 [label="lower_left_o <= 0.5\ngini = 0.23\nsamples = 16\nvalue = [3, 20]\nclass = a", fillcolor="#57ace9"] ;
172 -> 173 ;
174 [label="gini = 0.0\nsamples = 14\nvalue = [0, 19]\nclass = a", fillcolor="#399de5"] ;
173 -> 174 ;
175 [label="middle_left_x <= 0.5\ngini = 0.38\nsamples = 2\nvalue = [3, 1]\nclass = t", fillcolor="#eeab7b"] ;
173 -> 175 ;
176 [label="gini = 0.0\nsamples = 1\nvalue = [3, 0]\nclass = t", fillcolor="#e58139"] ;
175 -> 176 ;
177 [label="gini = 0.0\nsamples = 1\nvalue = [0, 1]\nclass = a", fillcolor="#399de5"] ;
175 -> 177 ;
178 [label="upper_middle_o <= 0.5\ngini = 0.36\nsamples = 33\nvalue = [12, 38]\nclass = a", fillcolor="#78bced"] ;
172 -> 178 ;
179 [label="upper_middle_x <= 0.5\ngini = 0.22\nsamples = 26\nvalue = [5, 34]\nclass = a", fillcolor="#56abe9"] ;
178 -> 179 ;
180 [label="lower_left_b <= 0.5\ngini = 0.47\nsamples = 5\nvalue = [5, 3]\nclass = t", fillcolor="#f5cdb0"] ;
179 -> 180 ;
181 [label="lower_right_b <= 0.5\ngini = 0.41\nsamples = 4\nvalue = [5, 2]\nclass = t", fillcolor="#efb388"] ;
180 -> 181 ;
182 [label="middle_right_x <= 0.5\ngini = 0.44\nsamples = 2\nvalue = [1, 2]\nclass = a", fillcolor="#9ccef2"] ;
181 -> 182 ;
183 [label="gini = 0.0\nsamples = 1\nvalue = [1, 0]\nclass = t", fillcolor="#e58139"] ;
182 -> 183 ;
184 [label="gini = 0.0\nsamples = 1\nvalue = [0, 2]\nclass = a", fillcolor="#399de5"] ;
182 -> 184 ;
185 [label="gini = 0.0\nsamples = 2\nvalue = [4, 0]\nclass = t", fillcolor="#e58139"] ;
181 -> 185 ;
186 [label="gini = 0.0\nsamples = 1\nvalue = [0, 1]\nclass = a", fillcolor="#399de5"] ;
180 -> 186 ;
187 [label="gini = 0.0\nsamples = 21\nvalue = [0, 31]\nclass = a", fillcolor="#399de5"] ;
179 -> 187 ;
188 [label="middle_left_x <= 0.5\ngini = 0.46\nsamples = 7\nvalue = [7, 4]\nclass = t", fillcolor="#f4c9aa"] ;
178 -> 188 ;
189 [label="upper_right_x <= 0.5\ngini = 0.49\nsamples = 4\nvalue = [3, 4]\nclass = a", fillcolor="#cee6f8"] ;
188 -> 189 ;
190 [label="gini = 0.0\nsamples = 2\nvalue = [3, 0]\nclass = t", fillcolor="#e58139"] ;
189 -> 190 ;
191 [label="gini = 0.0\nsamples = 2\nvalue = [0, 4]\nclass = a", fillcolor="#399de5"] ;
189 -> 191 ;
192 [label="gini = 0.0\nsamples = 3\nvalue = [4, 0]\nclass = t", fillcolor="#e58139"] ;
188 -> 192 ;
193 [label="upper_middle_x <= 0.5\ngini = 0.47\nsamples = 18\nvalue = [10, 17]\nclass = a", fillcolor="#add7f4"] ;
171 -> 193 ;
194 [label="upper_middle_o <= 0.5\ngini = 0.32\nsamples = 11\nvalue = [3, 12]\nclass = a", fillcolor="#6ab6ec"] ;
193 -> 194 ;
195 [label="gini = 0.0\nsamples = 3\nvalue = [0, 4]\nclass = a", fillcolor="#399de5"] ;
194 -> 195 ;
196 [label="middle_right_x <= 0.5\ngini = 0.4\nsamples = 8\nvalue = [3, 8]\nclass = a", fillcolor="#83c2ef"] ;
194 -> 196 ;
197 [label="middle_right_b <= 0.5\ngini = 0.48\nsamples = 3\nvalue = [2, 3]\nclass = a", fillcolor="#bddef6"] ;
196 -> 197 ;
198 [label="gini = 0.0\nsamples = 1\nvalue = [0, 1]\nclass = a", fillcolor="#399de5"] ;
197 -> 198 ;
199 [label="lower_right_o <= 0.5\ngini = 0.5\nsamples = 2\nvalue = [2, 2]\nclass = t", fillcolor="#ffffff"] ;
197 -> 199 ;
200 [label="gini = 0.0\nsamples = 1\nvalue = [2, 0]\nclass = t", fillcolor="#e58139"] ;
199 -> 200 ;
201 [label="gini = 0.0\nsamples = 1\nvalue = [0, 2]\nclass = a", fillcolor="#399de5"] ;
199 -> 201 ;
202 [label="lower_left_x <= 0.5\ngini = 0.28\nsamples = 5\nvalue = [1, 5]\nclass = a", fillcolor="#61b1ea"] ;
196 -> 202 ;
203 [label="gini = 0.0\nsamples = 1\nvalue = [0, 1]\nclass = a", fillcolor="#399de5"] ;
202 -> 203 ;
204 [label="upper_right_b <= 0.5\ngini = 0.32\nsamples = 4\nvalue = [1, 4]\nclass = a", fillcolor="#6ab6ec"] ;
202 -> 204 ;
205 [label="middle_left_b <= 0.5\ngini = 0.38\nsamples = 3\nvalue = [1, 3]\nclass = a", fillcolor="#7bbeee"] ;
204 -> 205 ;
206 [label="gini = 0.0\nsamples = 1\nvalue = [0, 2]\nclass = a", fillcolor="#399de5"] ;
205 -> 206 ;
207 [label="upper_right_o <= 0.5\ngini = 0.5\nsamples = 2\nvalue = [1, 1]\nclass = t", fillcolor="#ffffff"] ;
205 -> 207 ;
208 [label="gini = 0.0\nsamples = 1\nvalue = [0, 1]\nclass = a", fillcolor="#399de5"] ;
207 -> 208 ;
209 [label="gini = 0.0\nsamples = 1\nvalue = [1, 0]\nclass = t", fillcolor="#e58139"] ;
207 -> 209 ;
210 [label="gini = 0.0\nsamples = 1\nvalue = [0, 1]\nclass = a", fillcolor="#399de5"] ;
204 -> 210 ;
211 [label="middle_right_b <= 0.5\ngini = 0.49\nsamples = 7\nvalue = [7, 5]\nclass = t", fillcolor="#f8dbc6"] ;
193 -> 211 ;
212 [label="lower_right_o <= 0.5\ngini = 0.5\nsamples = 6\nvalue = [5, 5]\nclass = t", fillcolor="#ffffff"] ;
211 -> 212 ;
213 [label="middle_right_o <= 0.5\ngini = 0.32\nsamples = 3\nvalue = [1, 4]\nclass = a", fillcolor="#6ab6ec"] ;
212 -> 213 ;
214 [label="middle_left_x <= 0.5\ngini = 0.38\nsamples = 2\nvalue = [1, 3]\nclass = a", fillcolor="#7bbeee"] ;
213 -> 214 ;
215 [label="gini = 0.0\nsamples = 1\nvalue = [1, 0]\nclass = t", fillcolor="#e58139"] ;
214 -> 215 ;
216 [label="gini = 0.0\nsamples = 1\nvalue = [0, 3]\nclass = a", fillcolor="#399de5"] ;
214 -> 216 ;
217 [label="gini = 0.0\nsamples = 1\nvalue = [0, 1]\nclass = a", fillcolor="#399de5"] ;
213 -> 217 ;
218 [label="lower_left_o <= 0.5\ngini = 0.32\nsamples = 3\nvalue = [4, 1]\nclass = t", fillcolor="#eca06a"] ;
212 -> 218 ;
219 [label="gini = 0.0\nsamples = 1\nvalue = [3, 0]\nclass = t", fillcolor="#e58139"] ;
218 -> 219 ;
220 [label="middle_left_o <= 0.5\ngini = 0.5\nsamples = 2\nvalue = [1, 1]\nclass = t", fillcolor="#ffffff"] ;
218 -> 220 ;
221 [label="gini = 0.0\nsamples = 1\nvalue = [0, 1]\nclass = a", fillcolor="#399de5"] ;
220 -> 221 ;
222 [label="gini = 0.0\nsamples = 1\nvalue = [1, 0]\nclass = t", fillcolor="#e58139"] ;
220 -> 222 ;
223 [label="gini = 0.0\nsamples = 1\nvalue = [2, 0]\nclass = t", fillcolor="#e58139"] ;
211 -> 223 ;
224 [label="upper_right_x <= 0.5\ngini = 0.49\nsamples = 34\nvalue = [29, 23]\nclass = t", fillcolor="#fae5d6"] ;
170 -> 224 ;
225 [label="middle_right_o <= 0.5\ngini = 0.44\nsamples = 20\nvalue = [21, 10]\nclass = t", fillcolor="#f1bd97"] ;
224 -> 225 ;
226 [label="lower_middle_o <= 0.5\ngini = 0.3\nsamples = 12\nvalue = [18, 4]\nclass = t", fillcolor="#eb9d65"] ;
225 -> 226 ;
227 [label="middle_left_x <= 0.5\ngini = 0.36\nsamples = 7\nvalue = [10, 3]\nclass = t", fillcolor="#eda774"] ;
226 -> 227 ;
228 [label="upper_middle_x <= 0.5\ngini = 0.2\nsamples = 5\nvalue = [8, 1]\nclass = t", fillcolor="#e89152"] ;
227 -> 228 ;
229 [label="gini = 0.0\nsamples = 4\nvalue = [8, 0]\nclass = t", fillcolor="#e58139"] ;
228 -> 229 ;
230 [label="gini = 0.0\nsamples = 1\nvalue = [0, 1]\nclass = a", fillcolor="#399de5"] ;
228 -> 230 ;
231 [label="upper_middle_o <= 0.5\ngini = 0.5\nsamples = 2\nvalue = [2, 2]\nclass = t", fillcolor="#ffffff"] ;
227 -> 231 ;
232 [label="gini = 0.0\nsamples = 1\nvalue = [0, 2]\nclass = a", fillcolor="#399de5"] ;
231 -> 232 ;
233 [label="gini = 0.0\nsamples = 1\nvalue = [2, 0]\nclass = t", fillcolor="#e58139"] ;
231 -> 233 ;
234 [label="upper_middle_o <= 0.5\ngini = 0.2\nsamples = 5\nvalue = [8, 1]\nclass = t", fillcolor="#e89152"] ;
226 -> 234 ;
235 [label="gini = 0.0\nsamples = 2\nvalue = [4, 0]\nclass = t", fillcolor="#e58139"] ;
234 -> 235 ;
236 [label="lower_left_b <= 0.5\ngini = 0.32\nsamples = 3\nvalue = [4, 1]\nclass = t", fillcolor="#eca06a"] ;
234 -> 236 ;
237 [label="gini = 0.0\nsamples = 2\nvalue = [4, 0]\nclass = t", fillcolor="#e58139"] ;
236 -> 237 ;
238 [label="gini = 0.0\nsamples = 1\nvalue = [0, 1]\nclass = a", fillcolor="#399de5"] ;
236 -> 238 ;
239 [label="upper_middle_o <= 0.5\ngini = 0.44\nsamples = 8\nvalue = [3, 6]\nclass = a", fillcolor="#9ccef2"] ;
225 -> 239 ;
240 [label="upper_middle_b <= 0.5\ngini = 0.28\nsamples = 5\nvalue = [1, 5]\nclass = a", fillcolor="#61b1ea"] ;
239 -> 240 ;
241 [label="lower_left_o <= 0.5\ngini = 0.32\nsamples = 4\nvalue = [1, 4]\nclass = a", fillcolor="#6ab6ec"] ;
240 -> 241 ;
242 [label="lower_left_x <= 0.5\ngini = 0.5\nsamples = 2\nvalue = [1, 1]\nclass = t", fillcolor="#ffffff"] ;
241 -> 242 ;
243 [label="gini = 0.0\nsamples = 1\nvalue = [0, 1]\nclass = a", fillcolor="#399de5"] ;
242 -> 243 ;
244 [label="gini = 0.0\nsamples = 1\nvalue = [1, 0]\nclass = t", fillcolor="#e58139"] ;
242 -> 244 ;
245 [label="gini = 0.0\nsamples = 2\nvalue = [0, 3]\nclass = a", fillcolor="#399de5"] ;
241 -> 245 ;
246 [label="gini = 0.0\nsamples = 1\nvalue = [0, 1]\nclass = a", fillcolor="#399de5"] ;
240 -> 246 ;
247 [label="upper_right_b <= 0.5\ngini = 0.44\nsamples = 3\nvalue = [2, 1]\nclass = t", fillcolor="#f2c09c"] ;
239 -> 247 ;
248 [label="gini = 0.0\nsamples = 2\nvalue = [2, 0]\nclass = t", fillcolor="#e58139"] ;
247 -> 248 ;
249 [label="gini = 0.0\nsamples = 1\nvalue = [0, 1]\nclass = a", fillcolor="#399de5"] ;
247 -> 249 ;
250 [label="lower_left_o <= 0.5\ngini = 0.47\nsamples = 14\nvalue = [8, 13]\nclass = a", fillcolor="#b3d9f5"] ;
224 -> 250 ;
251 [label="gini = 0.0\nsamples = 5\nvalue = [0, 8]\nclass = a", fillcolor="#399de5"] ;
250 -> 251 ;
252 [label="middle_left_b <= 0.5\ngini = 0.47\nsamples = 9\nvalue = [8, 5]\nclass = t", fillcolor="#f5d0b5"] ;
250 -> 252 ;
253 [label="gini = 0.0\nsamples = 7\nvalue = [8, 0]\nclass = t", fillcolor="#e58139"] ;
252 -> 253 ;
254 [label="gini = 0.0\nsamples = 2\nvalue = [0, 5]\nclass = a", fillcolor="#399de5"] ;
252 -> 254 ;
255 [label="lower_middle_o <= 0.5\ngini = 0.35\nsamples = 84\nvalue = [29, 99]\nclass = a", fillcolor="#73baed"] ;
169 -> 255 ;
256 [label="lower_right_x <= 0.5\ngini = 0.39\nsamples = 46\nvalue = [18, 50]\nclass = a", fillcolor="#80c0ee"] ;
255 -> 256 ;
257 [label="lower_middle_b <= 0.5\ngini = 0.5\nsamples = 24\nvalue = [18, 21]\nclass = a", fillcolor="#e3f1fb"] ;
256 -> 257 ;
258 [label="middle_right_o <= 0.5\ngini = 0.48\nsamples = 13\nvalue = [15, 10]\nclass = t", fillcolor="#f6d5bd"] ;
257 -> 258 ;
259 [label="upper_middle_x <= 0.5\ngini = 0.44\nsamples = 6\nvalue = [4, 8]\nclass = a", fillcolor="#9ccef2"] ;
258 -> 259 ;
260 [label="upper_right_x <= 0.5\ngini = 0.32\nsamples = 3\nvalue = [4, 1]\nclass = t", fillcolor="#eca06a"] ;
259 -> 260 ;
261 [label="middle_left_o <= 0.5\ngini = 0.44\nsamples = 2\nvalue = [2, 1]\nclass = t", fillcolor="#f2c09c"] ;
260 -> 261 ;
262 [label="gini = 0.0\nsamples = 1\nvalue = [0, 1]\nclass = a", fillcolor="#399de5"] ;
261 -> 262 ;
263 [label="gini = 0.0\nsamples = 1\nvalue = [2, 0]\nclass = t", fillcolor="#e58139"] ;
261 -> 263 ;
264 [label="gini = 0.0\nsamples = 1\nvalue = [2, 0]\nclass = t", fillcolor="#e58139"] ;
260 -> 264 ;
265 [label="gini = 0.0\nsamples = 3\nvalue = [0, 7]\nclass = a", fillcolor="#399de5"] ;
259 -> 265 ;
266 [label="upper_middle_x <= 0.5\ngini = 0.26\nsamples = 7\nvalue = [11, 2]\nclass = t", fillcolor="#ea985d"] ;
258 -> 266 ;
267 [label="middle_left_x <= 0.5\ngini = 0.15\nsamples = 6\nvalue = [11, 1]\nclass = t", fillcolor="#e78c4b"] ;
266 -> 267 ;
268 [label="middle_left_b <= 0.5\ngini = 0.32\nsamples = 3\nvalue = [4, 1]\nclass = t", fillcolor="#eca06a"] ;
267 -> 268 ;
269 [label="upper_right_o <= 0.5\ngini = 0.5\nsamples = 2\nvalue = [1, 1]\nclass = t", fillcolor="#ffffff"] ;
268 -> 269 ;
270 [label="gini = 0.0\nsamples = 1\nvalue = [0, 1]\nclass = a", fillcolor="#399de5"] ;
269 -> 270 ;
271 [label="gini = 0.0\nsamples = 1\nvalue = [1, 0]\nclass = t", fillcolor="#e58139"] ;
269 -> 271 ;
272 [label="gini = 0.0\nsamples = 1\nvalue = [3, 0]\nclass = t", fillcolor="#e58139"] ;
268 -> 272 ;
273 [label="gini = 0.0\nsamples = 3\nvalue = [7, 0]\nclass = t", fillcolor="#e58139"] ;
267 -> 273 ;
274 [label="gini = 0.0\nsamples = 1\nvalue = [0, 1]\nclass = a", fillcolor="#399de5"] ;
266 -> 274 ;
275 [label="upper_middle_o <= 0.5\ngini = 0.34\nsamples = 11\nvalue = [3, 11]\nclass = a", fillcolor="#6fb8ec"] ;
257 -> 275 ;
276 [label="middle_right_o <= 0.5\ngini = 0.5\nsamples = 6\nvalue = [3, 3]\nclass = t", fillcolor="#ffffff"] ;
275 -> 276 ;
277 [label="gini = 0.0\nsamples = 1\nvalue = [0, 1]\nclass = a", fillcolor="#399de5"] ;
276 -> 277 ;
278 [label="lower_left_o <= 0.5\ngini = 0.48\nsamples = 5\nvalue = [3, 2]\nclass = t", fillcolor="#f6d5bd"] ;
276 -> 278 ;
279 [label="gini = 0.0\nsamples = 2\nvalue = [2, 0]\nclass = t", fillcolor="#e58139"] ;
278 -> 279 ;
280 [label="upper_right_x <= 0.5\ngini = 0.44\nsamples = 3\nvalue = [1, 2]\nclass = a", fillcolor="#9ccef2"] ;
278 -> 280 ;
281 [label="gini = 0.0\nsamples = 1\nvalue = [1, 0]\nclass = t", fillcolor="#e58139"] ;
280 -> 281 ;
282 [label="gini = 0.0\nsamples = 2\nvalue = [0, 2]\nclass = a", fillcolor="#399de5"] ;
280 -> 282 ;
283 [label="gini = 0.0\nsamples = 5\nvalue = [0, 8]\nclass = a", fillcolor="#399de5"] ;
275 -> 283 ;
284 [label="gini = 0.0\nsamples = 22\nvalue = [0, 29]\nclass = a", fillcolor="#399de5"] ;
256 -> 284 ;
285 [label="upper_middle_o <= 0.5\ngini = 0.3\nsamples = 38\nvalue = [11, 49]\nclass = a", fillcolor="#65b3eb"] ;
255 -> 285 ;
286 [label="lower_right_b <= 0.5\ngini = 0.44\nsamples = 23\nvalue = [11, 23]\nclass = a", fillcolor="#98ccf1"] ;
285 -> 286 ;
287 [label="lower_right_x <= 0.5\ngini = 0.46\nsamples = 20\nvalue = [11, 20]\nclass = a", fillcolor="#a6d3f3"] ;
286 -> 287 ;
288 [label="lower_left_o <= 0.5\ngini = 0.34\nsamples = 8\nvalue = [11, 3]\nclass = t", fillcolor="#eca36f"] ;
287 -> 288 ;
289 [label="lower_left_b <= 0.5\ngini = 0.38\nsamples = 3\nvalue = [1, 3]\nclass = a", fillcolor="#7bbeee"] ;
288 -> 289 ;
290 [label="gini = 0.0\nsamples = 1\nvalue = [0, 2]\nclass = a", fillcolor="#399de5"] ;
289 -> 290 ;
291 [label="upper_right_o <= 0.5\ngini = 0.5\nsamples = 2\nvalue = [1, 1]\nclass = t", fillcolor="#ffffff"] ;
289 -> 291 ;
292 [label="gini = 0.0\nsamples = 1\nvalue = [0, 1]\nclass = a", fillcolor="#399de5"] ;
291 -> 292 ;
293 [label="gini = 0.0\nsamples = 1\nvalue = [1, 0]\nclass = t", fillcolor="#e58139"] ;
291 -> 293 ;
294 [label="gini = 0.0\nsamples = 5\nvalue = [10, 0]\nclass = t", fillcolor="#e58139"] ;
288 -> 294 ;
295 [label="gini = 0.0\nsamples = 12\nvalue = [0, 17]\nclass = a", fillcolor="#399de5"] ;
287 -> 295 ;
296 [label="gini = 0.0\nsamples = 3\nvalue = [0, 3]\nclass = a", fillcolor="#399de5"] ;
286 -> 296 ;
297 [label="gini = 0.0\nsamples = 15\nvalue = [0, 26]\nclass = a", fillcolor="#399de5"] ;
285 -> 297 ;
298 [label="middle_left_x <= 0.5\ngini = 0.31\nsamples = 52\nvalue = [18, 76]\nclass = a", fillcolor="#68b4eb"] ;
168 -> 298 ;
299 [label="lower_middle_x <= 0.5\ngini = 0.2\nsamples = 33\nvalue = [7, 56]\nclass = a", fillcolor="#52a9e8"] ;
298 -> 299 ;
300 [label="upper_right_x <= 0.5\ngini = 0.31\nsamples = 17\nvalue = [7, 29]\nclass = a", fillcolor="#69b5eb"] ;
299 -> 300 ;
301 [label="gini = 0.0\nsamples = 1\nvalue = [2, 0]\nclass = t", fillcolor="#e58139"] ;
300 -> 301 ;
302 [label="lower_left_x <= 0.5\ngini = 0.25\nsamples = 16\nvalue = [5, 29]\nclass = a", fillcolor="#5baee9"] ;
300 -> 302 ;
303 [label="upper_middle_o <= 0.5\ngini = 0.5\nsamples = 6\nvalue = [5, 5]\nclass = t", fillcolor="#ffffff"] ;
302 -> 303 ;
304 [label="lower_right_x <= 0.5\ngini = 0.28\nsamples = 4\nvalue = [5, 1]\nclass = t", fillcolor="#ea9a61"] ;
303 -> 304 ;
305 [label="gini = 0.0\nsamples = 3\nvalue = [5, 0]\nclass = t", fillcolor="#e58139"] ;
304 -> 305 ;
306 [label="gini = 0.0\nsamples = 1\nvalue = [0, 1]\nclass = a", fillcolor="#399de5"] ;
304 -> 306 ;
307 [label="gini = 0.0\nsamples = 2\nvalue = [0, 4]\nclass = a", fillcolor="#399de5"] ;
303 -> 307 ;
308 [label="gini = 0.0\nsamples = 10\nvalue = [0, 24]\nclass = a", fillcolor="#399de5"] ;
302 -> 308 ;
309 [label="gini = 0.0\nsamples = 16\nvalue = [0, 27]\nclass = a", fillcolor="#399de5"] ;
299 -> 309 ;
310 [label="middle_right_b <= 0.5\ngini = 0.46\nsamples = 19\nvalue = [11, 20]\nclass = a", fillcolor="#a6d3f3"] ;
298 -> 310 ;
311 [label="upper_middle_x <= 0.5\ngini = 0.41\nsamples = 17\nvalue = [8, 20]\nclass = a", fillcolor="#88c4ef"] ;
310 -> 311 ;
312 [label="middle_right_x <= 0.5\ngini = 0.24\nsamples = 13\nvalue = [3, 18]\nclass = a", fillcolor="#5aade9"] ;
311 -> 312 ;
313 [label="upper_middle_b <= 0.5\ngini = 0.48\nsamples = 3\nvalue = [3, 2]\nclass = t", fillcolor="#f6d5bd"] ;
312 -> 313 ;
314 [label="upper_right_x <= 0.5\ngini = 0.5\nsamples = 2\nvalue = [2, 2]\nclass = t", fillcolor="#ffffff"] ;
313 -> 314 ;
315 [label="gini = 0.0\nsamples = 1\nvalue = [2, 0]\nclass = t", fillcolor="#e58139"] ;
314 -> 315 ;
316 [label="gini = 0.0\nsamples = 1\nvalue = [0, 2]\nclass = a", fillcolor="#399de5"] ;
314 -> 316 ;
317 [label="gini = 0.0\nsamples = 1\nvalue = [1, 0]\nclass = t", fillcolor="#e58139"] ;
313 -> 317 ;
318 [label="gini = 0.0\nsamples = 10\nvalue = [0, 16]\nclass = a", fillcolor="#399de5"] ;
312 -> 318 ;
319 [label="lower_right_o <= 0.5\ngini = 0.41\nsamples = 4\nvalue = [5, 2]\nclass = t", fillcolor="#efb388"] ;
311 -> 319 ;
320 [label="gini = 0.0\nsamples = 1\nvalue = [0, 1]\nclass = a", fillcolor="#399de5"] ;
319 -> 320 ;
321 [label="lower_middle_b <= 0.5\ngini = 0.28\nsamples = 3\nvalue = [5, 1]\nclass = t", fillcolor="#ea9a61"] ;
319 -> 321 ;
322 [label="lower_left_x <= 0.5\ngini = 0.5\nsamples = 2\nvalue = [1, 1]\nclass = t", fillcolor="#ffffff"] ;
321 -> 322 ;
323 [label="gini = 0.0\nsamples = 1\nvalue = [0, 1]\nclass = a", fillcolor="#399de5"] ;
322 -> 323 ;
324 [label="gini = 0.0\nsamples = 1\nvalue = [1, 0]\nclass = t", fillcolor="#e58139"] ;
322 -> 324 ;
325 [label="gini = 0.0\nsamples = 1\nvalue = [4, 0]\nclass = t", fillcolor="#e58139"] ;
321 -> 325 ;
326 [label="gini = 0.0\nsamples = 2\nvalue = [3, 0]\nclass = t", fillcolor="#e58139"] ;
310 -> 326 ;
}